SVM-light Version V6.02
0 # kernel type
3 # kernel parameter -d 
1 # kernel parameter -g 
1 # kernel parameter -s 
1 # kernel parameter -r 
empty# kernel parameter -u 
120 # highest feature index 
19 # number of training documents 
20 # number of support vectors plus 1 
0.74823575 # threshold b, each following line is a SV (starting with alpha*y)
-0.050359581580524309663005055881513 87:1 88:1 89:1 # 11,good,day,good + day,
-0.050359581580524309663005055881513 87:1 90:1 91:1 # 12,good,afternoon,good + afternoon,
-0.050325918685662940355030059436103 87:1 92:1 93:1 # 13,good,even,good + even,
-0.2517642450077600679847478204465 94:1 # 14,hi,
-0.25181875830299138563361793785589 95:1 # 15,hello,
1 28:1 # 4,comedy,
0.33550858733290322977182995600742 14:1 28:1 29:1 # 5,movie,comedy,movie + comedy,
0.083878191195539616997756127148023 16:1 17:1 18:1 20:1 21:1 23:1 25:1 30:1 31:1 32:1 33:1 34:1 35:1 36:1 37:1 38:1 39:1 40:1 41:1 42:1 43:1 44:1 45:1 46:1 47:1 # 6,avezvous,un,film,avezvous + un,un + film,avezvous + un + film,avezvous & film,de,comdie,dt,film + de,de + comdie,comdie + dt,un + film + de,film + de + comdie,de + comdie + dt,avezvous & de,avezvous & comdie,avezvous & dt,un & de,un & comdie,un & dt,film & comdie,film & dt,de & dt,
0.087804409588953372112207773625414 30:1 31:1 48:1 49:1 50:1 51:1 52:1 53:1 54:1 55:1 56:1 57:1 58:1 59:1 60:1 61:1 62:1 63:1 # 7,de,comdie,je,veux,la,je + veux,veux + de,de + la,la + comdie,je + veux + de,veux + de + la,de + la + comdie,je & de,je & la,je & comdie,veux & la,veux & comdie,de & comdie,
-0.062916747860476046616540202194301 16:1 17:1 18:1 19:1 20:1 21:1 22:1 23:1 24:1 25:1 26:1 27:1 # 3,avezvous,un,film,dramatique,avezvous + un,un + film,film + dramatique,avezvous + un + film,un + film + dramatique,avezvous & film,avezvous & dramatique,un & dramatique,
-0.076420711052610112989924573412281 13:1 14:1 15:1 # 2,drama,movie,movie + drama,
-0.16422560662041543744216198774666 14:1 64:1 65:1 # 8,movie,which,which + movie,
-0.018175301426806969584681894502864 1:1 14:1 66:1 67:1 68:1 69:1 70:1 71:1 72:1 73:1 74:1 75:1 76:1 77:1 78:1 79:1 80:1 81:1 # 9,what,movie,do,you,want,what + movie,movie + do,do + you,you + want,what + movie + do,movie + do + you,do + you + want,what & do,what & you,what & want,movie & you,movie & want,do & want,
-0.041955304525412455418642565518894 16:1 18:1 82:1 83:1 84:1 85:1 86:1 # 10,avezvous,film,quels,quels + film,film + avezvous,quels + film + avezvous,quels & avezvous,
-0.25181875830299138563361793785589 96:1 # 16,bonjour,
-0.020984896525249280979652510836786 97:1 98:1 99:1 100:1 101:1 102:1 103:1 104:1 105:1 106:1 107:1 108:1 # 17,bonsoir,jai,besoin,daide,bonsoir + jai,jai + besoin,besoin + daide,bonsoir + jai + besoin,jai + besoin + daide,bonsoir & besoin,bonsoir & daide,jai & daide,
-0.020984896525249280979652510836786 109:1 110:1 111:1 112:1 113:1 114:1 115:1 116:1 117:1 118:1 119:1 120:1 # 18,tell,me,about,u,tell + me,me + about,about + u,tell + me + about,me + about + u,tell & about,tell & u,me & u,
-0.019471088985112312147451874011495 1:1 2:1 3:1 4:1 5:1 6:1 7:1 8:1 9:1 10:1 11:1 12:1 # 0,what,be,the,weather,what + be,be + the,the + weather,what + be + the,be + the + weather,what & the,what & weather,be & weather,
-0.17560979113561048237102113489527 13:1 # 1,drama,
